34 128
34 -0.12821159 -0.15075606 -0.03945669 -0.031496126 0.02271708 -0.12722424 0.06488131 -0.042858936 -0.013233084 -0.0092127165 -0.087649316 0.085497096 0.06807813 -0.06271772 -0.06897225 -0.23287386 -0.035036195 -0.14399198 0.03060258 0.06967128 0.25686553 0.026533987 0.14880148 0.12291739 -0.07740501 -0.073780105 -0.043271277 0.0039660484 -0.009220603 0.07377864 -0.02472183 0.021371325 0.014303728 -0.041313946 -0.15329605 -0.054110013 0.26329425 0.13770853 -0.058783036 -0.18622182 -0.21875182 0.11814847 0.012405247 0.0366867 -0.045802686 0.1988293 0.08410733 0.047158808 -0.008474001 -0.059862275 -0.04622975 0.16641264 0.034915928 0.12307201 -0.21331824 -0.08470083 0.06669239 -0.110141166 -0.20208941 0.06820412 0.09586062 -0.07015506 -0.06876522 0.16418938 -0.10332891 -0.15310074 -0.18431315 0.06636131 -0.08723113 -0.114298366 -0.06932189 0.017686674 0.029323753 -0.05326142 0.08122098 -0.054383192 0.03792712 0.0490494 -0.021793334 0.07963893 -0.10313215 -0.16573623 0.049282894 -0.23636563 -0.08978594 0.2084729 0.027540354 -0.060290787 -0.09155243 -0.09885425 0.016273912 0.021744156 0.15304738 -0.08139439 -0.033685505 0.11902917 -0.06829532 -0.0076026088 -0.018833244 -0.081692986 -0.20397131 0.1027918 -0.1488727 -1.246106e-05 0.05716786 0.15511325 0.19669811 0.027948786 0.0004887322 -0.022454657 0.06356237 -0.05821603 -0.011680458 0.027245697 -0.105560035 -0.059160646 -0.05292494 0.18498619 0.037238684 -0.0631983 -0.06622179 -0.14194578 -0.06535926 -0.28015804 0.043595187 0.1319656 -0.15240057 0.076693036
1 -0.080501646 -0.25673142 -0.011455761 -0.048776675 0.053612188 -0.17709206 0.020579861 0.10490098 0.13467012 0.0027941493 -0.04635321 0.14604141 0.019893596 -0.097627826 0.08834058 -0.2672779 -0.07491066 -0.20410961 0.06585908 -0.044790037 0.2756416 0.006148538 0.12037935 0.084399976 0.025586974 -0.01571079 0.03253842 0.015194923 0.05100302 0.0748885 -0.061184417 -0.0312637 -0.02691764 0.0028122282 -0.06555797 -0.13833039 0.19349381 0.117468394 -0.047146663 -0.14786114 -0.096577555 -0.001178403 0.094156265 0.1301071 -0.12917736 0.22181714 0.07809336 0.011295131 0.08096626 0.060048968 -0.15779597 0.11199956 0.007754779 0.17000844 -0.1800139 -0.079153895 0.053977735 0.02297588 -0.12886308 -0.04652372 0.16992678 -0.16777274 -0.011606314 0.13049692 -0.16764747 -0.025087284 -0.15749018 0.03710409 -0.04279409 -0.21044822 -0.12590662 -0.024974145 0.012746541 -0.09429819 0.28207576 -0.009424022 0.14745957 -0.021519013 -0.050154496 -0.14538683 -0.21002609 -0.08592134 0.012230473 -0.16129641 -0.20534857 0.02457662 0.22545782 -0.11043249 0.038033284 -0.03933497 0.14351359 -0.09446583 0.18033715 -0.04780195 -0.1371833 0.0798708 -0.07070291 -0.22898278 0.12532596 0.042271376 -0.14114432 0.08364788 -0.1296542 0.02473951 -0.04326603 0.111677326 0.19569847 0.06917047 -0.057325725 -0.13269785 0.015355572 0.0036730028 0.0081638405 0.07977188 -0.16650143 -0.029732348 -0.027544824 0.16488096 -0.037933435 -0.19570248 -0.050589357 -0.13357824 0.055334426 -0.35631868 -0.09532495 0.009885708 -0.07575689 0.10827653
33 -0.11674449 -0.1756938 -0.040268324 -0.033483822 0.028672315 -0.14228728 0.055447254 -0.008017132 0.023248378 -0.006206853 -0.07424609 0.09909833 0.05696408 -0.072329335 -0.03059476 -0.23578778 -0.047046985 -0.15709488 0.028479656 0.045219757 0.26729932 0.0226711 0.14184168 0.1139223 -0.06118611 -0.063175805 -0.03570044 0.007683573 0.005867741 0.07426676 -0.035364915 0.012844026 0.010176828 -0.032038927 -0.14656729 -0.07903568 0.2547437 0.13637242 -0.063852936 -0.1791382 -0.19588116 0.09558841 0.027715225 0.05206209 -0.06601918 0.21288379 0.083977364 0.041333355 0.002367769 -0.039092593 -0.070659615 0.16225192 0.033018563 0.12886862 -0.21419954 -0.08003647 0.06254482 -0.083614536 -0.18344568 0.048182085 0.11756417 -0.098954074 -0.05810472 0.16334452 -0.11328527 -0.1306962 -0.1752544 0.06156238 -0.07787464 -0.13556592 -0.07811013 0.009541272 0.028984582 -0.064384334 0.121411435 -0.041517474 0.06203202 0.029542023 -0.02943639 0.03186537 -0.11775582 -0.15090372 0.039733004 -0.21924913 -0.116416894 0.17480233 0.06898447 -0.07003946 -0.06273414 -0.0883143 0.049975302 -0.000120301556 0.1572766 -0.0743033 -0.046086665 0.111482814 -0.0695653 -0.062538214 0.01224459 -0.060565636 -0.19175512 0.09238144 -0.14857793 0.011112856 0.04225766 0.1408177 0.1968868 0.03267222 -0.007714448 -0.04609458 0.05269886 -0.044018276 -0.00601373 0.032942433 -0.11601277 -0.0511102 -0.05066128 0.1745158 0.024077509 -0.10078335 -0.061237562 -0.13824567 -0.03793449 -0.2937327 0.021788264 0.102161296 -0.14213455 0.08099653
3 -0.10594066 -0.17885403 -0.02371118 -0.03912278 0.03324145 -0.14055237 0.03986357 0.01675358 0.03953647 -0.0037396282 -0.06246806 0.10081255 0.04280805 -0.07889434 -0.002656177 -0.23658861 -0.04861214 -0.16067357 0.04200375 0.017886125 0.2485786 0.022994077 0.12808432 0.10481047 -0.033804353 -0.04285612 -0.013593974 0.013127631 0.020831417 0.07316249 -0.041950017 -0.0012829761 -0.005589314 -0.017521404 -0.11345587 -0.08953458 0.22337855 0.12318233 -0.05008566 -0.15806134 -0.15710098 0.060528725 0.040199745 0.0723693 -0.07695233 0.2010147 0.07383681 0.03177409 0.017973451 -0.012061432 -0.083298154 0.13298348 0.017094696 0.13632381 -0.19282624 -0.07594973 0.058443714 -0.05217531 -0.16935432 0.02498718 0.117749184 -0.10632775 -0.043584503 0.14833327 -0.12337418 -0.09980412 -0.16026519 0.056896877 -0.06558908 -0.14749414 -0.08388406 0.0026886105 0.02205995 -0.066396676 0.1589307 -0.034709126 0.08429333 0.017042793 -0.027549863 -0.009869886 -0.13606429 -0.124657415 0.029453114 -0.20074956 -0.13081291 0.13118838 0.10343453 -0.076366186 -0.037058774 -0.074814916 0.066657536 -0.023427835 0.15503493 -0.06759607 -0.0721763 0.09800754 -0.070094116 -0.09200829 0.04105087 -0.033805728 -0.17435062 0.08809029 -0.13621975 0.0147879105 0.02335914 0.13688776 0.18518947 0.041613985 -0.016612897 -0.07011985 0.04294783 -0.032136235 -0.0026927714 0.047638267 -0.12391402 -0.042229693 -0.045756027 0.16473669 0.011914106 -0.11575255 -0.05932645 -0.14022733 -0.019508135 -0.29819855 -0.00713777 0.07642876 -0.11722698 0.083856344
2 -0.09316007 -0.22026415 -0.023010282 -0.045449704 0.04206322 -0.16299939 0.03374112 0.05880692 0.07863222 -0.0012606862 -0.058807272 0.12646729 0.038535126 -0.09007782 0.038104724 -0.25786227 -0.06650291 -0.18055233 0.050655846 -0.008115541 0.27042866 0.01723541 0.13166945 0.09546285 -0.015298112 -0.03159309 0.0033334575 0.014289372 0.037298657 0.07508969 -0.047830585 -0.01617141 -0.016061582 -0.007226059 -0.098603375 -0.108979404 0.21840957 0.12115814 -0.050046697 -0.1581011 -0.13079011 0.039384354 0.06532447 0.09664685 -0.10381037 0.21462256 0.0747389 0.024009833 0.04725306 0.013656542 -0.11731774 0.12269242 0.01733381 0.15743054 -0.19513214 -0.07823916 0.06146306 -0.017449107 -0.15646368 -0.0039867302 0.14312659 -0.13385515 -0.030170295 0.14034054 -0.14541371 -0.06429039 -0.16581419 0.04637513 -0.059177592 -0.17876813 -0.10664887 -0.008961382 0.022764081 -0.08339845 0.21389195 -0.019626623 0.11288802 -0.0010868259 -0.039456274 -0.069478035 -0.17081136 -0.11258318 0.019163627 -0.18393822 -0.16174485 0.090142466 0.15928008 -0.09238288 0.00050525094 -0.061817292 0.10437072 -0.052532576 0.16771948 -0.06583754 -0.10269732 0.09084694 -0.07162035 -0.15657969 0.07268901 0.000772426 -0.15536314 0.083239555 -0.13195096 0.017445508 -0.006741758 0.12250358 0.19662364 0.056862548 -0.038883436 -0.09728401 0.028306639 -0.014698313 0.004140047 0.061375886 -0.14677973 -0.038755476 -0.03769252 0.1682068 -0.011818604 -0.15568078 -0.05616037 -0.1413032 0.015672497 -0.3317978 -0.041573398 0.04972984 -0.098065734 0.096276015
32 -0.115771875 -0.16614233 -0.04077789 -0.036065493 0.023752648 -0.13000908 0.05287647 -0.016739259 0.014173046 -0.0047701304 -0.075985864 0.09296368 0.05439962 -0.06298051 -0.035678886 -0.2248049 -0.04126232 -0.15162598 0.03137945 0.04701506 0.24945702 0.025673121 0.12958743 0.11073042 -0.059839625 -0.058568593 -0.031191032 0.010600877 0.0025943413 0.06684565 -0.03371316 0.009476025 0.014443474 -0.03177397 -0.1360668 -0.06756535 0.23997326 0.13210028 -0.055323992 -0.17648341 -0.18753758 0.09233474 0.020758806 0.048270624 -0.06060482 0.19637354 0.07903968 0.047179297 0.006524778 -0.04270005 -0.06618482 0.14964491 0.025831265 0.1271203 -0.19989929 -0.07956811 0.062169716 -0.083478615 -0.18230172 0.043606993 0.10664702 -0.08645729 -0.0537442 0.15546009 -0.11706646 -0.12541153 -0.17496753 0.0661974 -0.07788704 -0.12980121 -0.08084205 0.013750935 0.028347459 -0.06168531 0.10910999 -0.04197426 0.05567931 0.033818122 -0.026091335 0.03626816 -0.11628605 -0.14612776 0.045633733 -0.21206957 -0.108450025 0.1705325 0.06333078 -0.065809116 -0.062248375 -0.090866394 0.040622514 0.0018191638 0.15423587 -0.07739408 -0.045173157 0.1041349 -0.063100606 -0.04749928 0.0011296934 -0.062476985 -0.17952356 0.091038026 -0.14199093 0.0043443143 0.04439635 0.14617816 0.1894993 0.029900322 -0.011427663 -0.039060216 0.05038319 -0.049125344 -0.0054167863 0.0376831 -0.110375054 -0.049387354 -0.047809694 0.17219286 0.031276286 -0.08877702 -0.06123001 -0.13780487 -0.04484026 -0.27900285 0.026822992 0.09861975 -0.14025868 0.080875866
4 -0.09608045 -0.21090041 -0.02534946 -0.04197963 0.04245712 -0.16142394 0.03244225 0.052453008 0.07738898 -0.002994947 -0.05578366 0.12200685 0.040563878 -0.08529881 0.029706988 -0.2519394 -0.06054051 -0.18391569 0.049668133 -0.00013917424 0.2705105 0.014727525 0.12651306 0.09777637 -0.013494495 -0.035415914 -0.0015965676 0.014123085 0.03290846 0.072612904 -0.050380323 -0.015696688 -0.010056768 -0.015445559 -0.103087 -0.10887795 0.22304223 0.12696746 -0.051321793 -0.16121833 -0.13829134 0.040015265 0.062361225 0.096051216 -0.09548429 0.21298116 0.077149704 0.024256632 0.0410293 0.009383655 -0.110618 0.12851378 0.017993622 0.15265042 -0.1950322 -0.07642783 0.06223879 -0.026922755 -0.15457231 -0.00334948 0.1460382 -0.13413829 -0.02977644 0.14421141 -0.14077768 -0.070156366 -0.17244096 0.051892716 -0.06022442 -0.17651407 -0.10424108 -0.005518767 0.022072941 -0.08492711 0.20946833 -0.026663737 0.10979267 0.005141754 -0.041993693 -0.056098823 -0.16730726 -0.11927073 0.024972249 -0.18682972 -0.1601206 0.09560015 0.15533279 -0.09355868 -0.0064630858 -0.06217544 0.09466166 -0.05232379 0.16571751 -0.06306197 -0.095160596 0.09532714 -0.073354244 -0.14860405 0.0702823 -0.008705563 -0.1663824 0.09010471 -0.13290928 0.021983653 -0.005282582 0.13058542 0.19308901 0.053437393 -0.035482462 -0.09188558 0.036712237 -0.021358207 0.0007235631 0.060884584 -0.14348732 -0.038117398 -0.040019196 0.17021309 -0.005513174 -0.15029414 -0.05484007 -0.13720502 0.005000943 -0.3326443 -0.04070743 0.056451727 -0.1026707 0.09809192
14 -0.09031499 -0.21519995 -0.016595898 -0.043555472 0.043326125 -0.15296113 0.028020686 0.057627365 0.084359445 0.0019259184 -0.054677937 0.12543179 0.030052045 -0.08460328 0.04314235 -0.24362604 -0.06090586 -0.17505877 0.05212566 -0.013787244 0.2575554 0.015824309 0.12057312 0.09192976 -0.0050471127 -0.026925668 0.01249315 0.01432239 0.030032521 0.07499497 -0.04596668 -0.014490502 -0.01651116 -0.0043980633 -0.08234591 -0.10976556 0.20363423 0.11747549 -0.050950818 -0.14910868 -0.1275192 0.03233471 0.06726856 0.099387646 -0.10060616 0.20832257 0.076429605 0.02151176 0.04988639 0.024568921 -0.12186067 0.12025722 0.014829836 0.14976816 -0.18013194 -0.077619694 0.05271533 -0.014753516 -0.14644815 -0.0150752785 0.14180458 -0.13513851 -0.024516106 0.13026068 -0.14247848 -0.057570558 -0.15484804 0.040051233 -0.053094734 -0.17484696 -0.1057229 -0.007973031 0.013255694 -0.07480828 0.21887134 -0.0170021 0.11173978 -0.0010283967 -0.040351234 -0.076619454 -0.16951817 -0.10157684 0.022031004 -0.1695924 -0.16570327 0.07770734 0.15897104 -0.09376764 0.0018775708 -0.055452652 0.101307966 -0.059150834 0.16388607 -0.056201823 -0.10401357 0.08992763 -0.069779664 -0.15327005 0.08172595 0.0071491064 -0.15583204 0.08141079 -0.13037103 0.021347234 -0.016361304 0.11881298 0.18675655 0.05806768 -0.040555395 -0.099425025 0.025697054 -0.015399476 -0.0003112157 0.05983572 -0.13788687 -0.036086883 -0.0391217 0.15902035 -0.016071426 -0.14793116 -0.05252765 -0.13350771 0.019900817 -0.32090557 -0.04927976 0.041419495 -0.09509696 0.093042634
24 -0.119415246 -0.14609152 -0.038288184 -0.031103441 0.020145023 -0.12659143 0.054524515 -0.035443902 -0.0050004045 -0.006251654 -0.07556734 0.08098712 0.066570535 -0.064192176 -0.057443958 -0.22524513 -0.0391901 -0.14275652 0.029929405 0.06030757 0.25129846 0.028936468 0.13872825 0.12325701 -0.07218679 -0.061567083 -0.04256035 0.004614875 -0.006517897 0.071996026 -0.03420549 0.018394737 0.012537183 -0.041211646 -0.14864038 -0.06080515 0.25401106 0.12934694 -0.058484092 -0.18550064 -0.20355467 0.109870434 0.00859349 0.038478486 -0.047004767 0.20173672 0.07245244 0.05522802 -0.0070314966 -0.060137402 -0.047799587 0.16118598 0.027561441 0.12318288 -0.20369396 -0.074584335 0.06998273 -0.10230918 -0.1981713 0.061548036 0.098745845 -0.07712192 -0.05909413 0.160297 -0.11037952 -0.14652595 -0.18047462 0.07230616 -0.087970525 -0.11314241 -0.06872604 0.018622827 0.028761225 -0.05719263 0.08917697 -0.05161839 0.04013629 0.038304783 -0.021674434 0.07120537 -0.0987905 -0.15714854 0.04752981 -0.22640187 -0.09790517 0.19361034 0.03320835 -0.059144124 -0.078560665 -0.09707598 0.023599075 0.015306279 0.15250039 -0.0829565 -0.029883727 0.11393533 -0.06327489 -0.01946309 -0.012510489 -0.07876176 -0.19887967 0.099925116 -0.14062315 0.009370865 0.057642102 0.155222 0.19168492 0.02934178 0.0022576717 -0.026049139 0.059746727 -0.059417132 -0.010143173 0.029354941 -0.110943094 -0.057446502 -0.055146206 0.17183344 0.04095299 -0.07301735 -0.062695466 -0.14291695 -0.06244421 -0.28092027 0.04947524 0.12214137 -0.15176645 0.077751294
30 -0.11101804 -0.17515996 -0.04143554 -0.032950833 0.02134251 -0.1344198 0.05726231 -0.014795066 0.017978352 -0.0039624805 -0.079144 0.095726244 0.055211842 -0.069468826 -0.03529115 -0.235024 -0.04550632 -0.15436517 0.02883393 0.047813557 0.2580157 0.019883977 0.14006807 0.110954076 -0.054782268 -0.060898148 -0.025539428 0.0065656393 -0.00017472875 0.07189263 -0.036566123 0.0066778157 0.009931657 -0.035136446 -0.13748193 -0.068460606 0.24419752 0.13290438 -0.054901846 -0.18255796 -0.1876909 0.09255535 0.026746865 0.05739251 -0.060578134 0.20507209 0.07936933 0.0392843 0.0075647514 -0.036072284 -0.07024933 0.1559432 0.03165248 0.12387411 -0.19970463 -0.078218825 0.05927719 -0.08253384 -0.18182945 0.04373423 0.113210626 -0.09483414 -0.049502697 0.15538234 -0.110582896 -0.12561756 -0.17830706 0.06061116 -0.076212704 -0.13599983 -0.07778045 0.009159381 0.028096305 -0.06491726 0.12209361 -0.045974076 0.061864253 0.03435616 -0.028633693 0.03507495 -0.12759383 -0.14957751 0.037113715 -0.21825178 -0.11509842 0.17136176 0.06508397 -0.068494864 -0.064275086 -0.08500861 0.049338046 -0.006629592 0.15678182 -0.07146038 -0.047910437 0.10786705 -0.06914435 -0.05293091 0.010513038 -0.05808457 -0.18130906 0.0961404 -0.14504455 0.0018831668 0.03684441 0.1415751 0.19415924 0.036273666 -0.014265624 -0.045696966 0.048294723 -0.050523277 -0.011543557 0.032910213 -0.113201074 -0.05342346 -0.052505072 0.17531689 0.02301666 -0.08936141 -0.065386556 -0.135851 -0.040244963 -0.28909123 0.022888806 0.10456877 -0.13236257 0.08311508
8 -0.09489537 -0.21605313 -0.022278972 -0.041889973 0.037850395 -0.15390123 0.03600632 0.0498496 0.0779229 0.0017358449 -0.058870163 0.1226321 0.033526585 -0.084328465 0.03611413 -0.25271875 -0.060414378 -0.17757757 0.053554546 -0.0011640011 0.26208723 0.01564121 0.12420877 0.093718834 -0.01233701 -0.029524606 0.0029599397 0.013590961 0.028256267 0.07552855 -0.0487339 -0.012160755 -0.0099468995 -0.009110024 -0.09668558 -0.10841138 0.22071344 0.12262053 -0.049132638 -0.15502055 -0.13828388 0.04210122 0.057076395 0.09563626 -0.096731916 0.21603401 0.07489265 0.025468161 0.043121755 0.01334204 -0.11792829 0.1258958 0.021266611 0.1518642 -0.19142072 -0.07885285 0.055177823 -0.029547568 -0.15654816 -0.00750951 0.13865317 -0.13329504 -0.029228149 0.14269258 -0.13926585 -0.07342906 -0.16057062 0.046627913 -0.057798624 -0.17477547 -0.1065529 -0.008018664 0.015774045 -0.07884438 0.20500335 -0.02135134 0.10268363 0.0025754517 -0.039912667 -0.0609345 -0.1619721 -0.11334769 0.022214826 -0.18078347 -0.16271196 0.09292824 0.1533826 -0.08907526 -0.0068597547 -0.06339651 0.09919559 -0.05398398 0.1651909 -0.060928065 -0.097378545 0.08760385 -0.06957526 -0.14784092 0.067016006 -0.0064045303 -0.15674046 0.08144952 -0.13816072 0.016804688 -0.0018368481 0.1213305 0.19047205 0.048269458 -0.03624742 -0.094997175 0.028613597 -0.016111769 0.0024508513 0.056849405 -0.1446878 -0.03514508 -0.040782046 0.16346695 -0.009027158 -0.14457424 -0.056710474 -0.13916688 0.0145382695 -0.32043362 -0.037985772 0.04754813 -0.099690534 0.09132483
28 -0.11704017 -0.16868956 -0.032434165 -0.03749233 0.025417194 -0.13190089 0.047987796 -0.01186275 0.01584953 -0.0054616714 -0.07088385 0.0972354 0.056034114 -0.06603275 -0.03319536 -0.2312822 -0.04585754 -0.15482655 0.03695682 0.04437218 0.25165576 0.025246592 0.13450669 0.11083661 -0.0602401 -0.052805755 -0.033902284 0.0107177375 0.008457232 0.06996428 -0.034806065 0.01264484 0.010798277 -0.028845042 -0.13394324 -0.074768886 0.24074501 0.12958784 -0.053125806 -0.17102742 -0.18349198 0.084612116 0.025334537 0.053974364 -0.06419865 0.19770601 0.06996519 0.043708853 0.0013173012 -0.04137748 -0.07005073 0.14810738 0.028058397 0.1237014 -0.19545288 -0.075607404 0.060994226 -0.081206225 -0.18570113 0.044728316 0.10793289 -0.093119875 -0.04828383 0.15489359 -0.11342523 -0.12118515 -0.17192379 0.06518642 -0.07964836 -0.13239646 -0.07876418 0.014308922 0.024608025 -0.065646075 0.11669278 -0.04059335 0.05736513 0.032879405 -0.030516744 0.035021514 -0.115517564 -0.14628029 0.04061834 -0.20902798 -0.11190939 0.16800407 0.06688052 -0.065241516 -0.057093933 -0.08592454 0.045665137 -0.0033720327 0.15001874 -0.07788471 -0.043643788 0.101182826 -0.065310866 -0.051886708 0.008921617 -0.06029315 -0.18395188 0.09473283 -0.14126159 0.00945362 0.04372183 0.14538817 0.1916316 0.03746668 -0.00827453 -0.04875808 0.05052613 -0.04418232 -0.009253652 0.036079478 -0.11329581 -0.05301506 -0.052699573 0.16610652 0.02463648 -0.095953085 -0.05968979 -0.13897547 -0.041584086 -0.28193906 0.0200393 0.095404804 -0.13447621 0.08075741
6 -0.08110142 -0.22627604 -0.023131717 -0.035848856 0.042826384 -0.15555426 0.034591366 0.074051 0.10312632 -0.00029954966 -0.047317248 0.12649325 0.023473889 -0.08327347 0.05961129 -0.24293043 -0.06714456 -0.18978734 0.050862763 -0.02184812 0.25779027 0.0041288966 0.116693355 0.08400458 0.010247234 -0.032763325 0.012199028 0.002581342 0.035632607 0.07350242 -0.04949717 -0.025822217 -0.010460043 -0.011743333 -0.0790661 -0.11484144 0.20085894 0.12100034 -0.055930372 -0.15110946 -0.11444486 0.026020883 0.07496086 0.10026987 -0.11011021 0.20999755 0.082087256 0.01542953 0.062115546 0.035343863 -0.12644055 0.1196741 0.01137541 0.14680882 -0.17016026 -0.078270845 0.052926235 -0.009585159 -0.124913394 -0.027892884 0.1512081 -0.13651016 -0.015974836 0.13186198 -0.14280888 -0.050823387 -0.15693097 0.04302823 -0.04810063 -0.18526173 -0.10627347 -0.014263985 0.008641791 -0.07992584 0.23047027 -0.01609209 0.11667024 -0.0038598375 -0.047232427 -0.093990445 -0.17987908 -0.0873362 0.02270251 -0.15733854 -0.1682035 0.050907675 0.18213578 -0.093075655 0.009253221 -0.046643477 0.116678044 -0.06773073 0.1664724 -0.045487303 -0.10676472 0.08427459 -0.06041719 -0.1810351 0.091989845 0.013297786 -0.13626477 0.07993693 -0.12844682 0.01844428 -0.026553651 0.111260995 0.17993075 0.05630495 -0.037954077 -0.104189835 0.028339759 -0.0019324882 0.0019244355 0.063193396 -0.14384587 -0.027420511 -0.028273694 0.15323451 -0.016430553 -0.16195133 -0.047587633 -0.12539633 0.037681088 -0.32445762 -0.06895155 0.031122074 -0.08018483 0.09411192
9 -0.11292895 -0.17910698 -0.03602561 -0.03885543 0.029517882 -0.13816383 0.048379034 0.0035017023 0.036972523 -0.0048650354 -0.07070034 0.10764492 0.051448442 -0.0751466 -0.020043543 -0.23846824 -0.05072214 -0.15516418 0.0357588 0.03410628 0.25403628 0.023298573 0.1379559 0.10567036 -0.048044022 -0.05117636 -0.02265333 0.005733796 0.008270484 0.07237058 -0.034695134 0.010028484 0.0021655923 -0.028830549 -0.12162521 -0.08163243 0.24123707 0.13054284 -0.058221605 -0.1686779 -0.18429825 0.07794187 0.036986064 0.06553312 -0.07278506 0.20361881 0.08237254 0.033235982 0.014399531 -0.029446011 -0.08426381 0.14997862 0.025136884 0.13472992 -0.19831324 -0.081959136 0.058449533 -0.07223571 -0.17874382 0.031731933 0.11885051 -0.100699134 -0.053864717 0.1537724 -0.11687062 -0.113986164 -0.1698979 0.056075793 -0.074877776 -0.14144735 -0.08256639 0.008043538 0.029119998 -0.06679422 0.14206171 -0.03974118 0.069508195 0.029499564 -0.03430448 0.0136068985 -0.12706642 -0.13889645 0.032286797 -0.2121354 -0.1261906 0.14922102 0.0858922 -0.07515877 -0.053465597 -0.07893688 0.05785057 -0.01413006 0.16244735 -0.06514751 -0.063639626 0.099961676 -0.06502562 -0.07393837 0.0229965 -0.040774472 -0.18420506 0.08768437 -0.14548616 0.00948946 0.029196505 0.13676298 0.18819553 0.04134211 -0.0210577 -0.059654616 0.050633185 -0.03782669 -0.003181351 0.03633931 -0.119169906 -0.049685255 -0.049802024 0.17673905 0.011507037 -0.09747113 -0.062014665 -0.13766834 -0.029155634 -0.2926521 0.00087206444 0.09313677 -0.12779437 0.084216304
7 -0.083405145 -0.22383918 -0.030615794 -0.04015367 0.037809193 -0.15461694 0.038244024 0.063432395 0.10094922 -0.0020898955 -0.055434186 0.12859221 0.029562335 -0.084467754 0.049549043 -0.2461586 -0.063963205 -0.18879071 0.044953495 -0.011961034 0.2669587 0.004182508 0.12335223 0.09691407 0.004505871 -0.040877506 0.0025991397 0.0029522888 0.027261622 0.07201395 -0.044333138 -0.016045913 -0.0122076785 -0.019364612 -0.091835424 -0.11184571 0.2090228 0.119681336 -0.05692773 -0.15819955 -0.13045627 0.036350545 0.07002629 0.10075587 -0.10321574 0.21643753 0.08647708 0.02151562 0.05797839 0.027651317 -0.12537463 0.12985058 0.018187918 0.15083753 -0.18382463 -0.077785686 0.055992838 -0.020633625 -0.1331672 -0.013713914 0.14799693 -0.13565746 -0.019969104 0.13791582 -0.14310938 -0.055985827 -0.15911923 0.04755152 -0.050327256 -0.18363221 -0.10905719 -0.009229126 0.0085548125 -0.07953442 0.22161031 -0.018102886 0.10901751 -0.0007377137 -0.045731172 -0.08529903 -0.17415495 -0.09438031 0.023614937 -0.16270396 -0.1700527 0.06627172 0.16619334 -0.091169566 -0.0016840354 -0.050087053 0.109656855 -0.06280171 0.17007723 -0.049505033 -0.1038791 0.09174289 -0.059978962 -0.16907717 0.07888519 0.009178514 -0.1491965 0.0870578 -0.13720109 0.014559126 -0.021179162 0.1088407 0.1814464 0.051576376 -0.0337745 -0.09533102 0.030846102 -0.0044775596 -0.0016734168 0.05383878 -0.14531535 -0.035030384 -0.033140037 0.15903567 -0.01619477 -0.1509491 -0.052262306 -0.120757334 0.030770138 -0.32165274 -0.061560526 0.038079794 -0.08769963 0.100228205
25 -0.11790844 -0.1422657 -0.04182566 -0.035266183 0.014472422 -0.120848805 0.04910243 -0.037450485 -0.0009499801 -0.007717462 -0.07760857 0.07632702 0.06091376 -0.05606865 -0.055546373 -0.2163393 -0.034715276 -0.13660763 0.030041566 0.062346667 0.24110152 0.024530973 0.13497423 0.116703555 -0.06848758 -0.06515964 -0.03718706 0.0048758467 -0.009897746 0.06906982 -0.025966216 0.017485224 0.01572633 -0.041507423 -0.14515516 -0.05443035 0.23191032 0.12803388 -0.056704994 -0.17521794 -0.1956617 0.102826335 0.0070000486 0.03145217 -0.042343102 0.1926355 0.072243445 0.05229634 -0.0039252155 -0.05331196 -0.053521033 0.1539868 0.031023072 0.11428184 -0.19805482 -0.07548366 0.06593271 -0.09964836 -0.18786392 0.062371872 0.09181439 -0.0707268 -0.05396609 0.14875963 -0.10493154 -0.13725197 -0.17049164 0.06670915 -0.085226834 -0.10883248 -0.06667401 0.01255086 0.033036936 -0.05136542 0.084310435 -0.052378975 0.03804882 0.041669585 -0.017401006 0.060792793 -0.09963114 -0.15334423 0.04433805 -0.22250052 -0.093414895 0.18530317 0.03434725 -0.06470252 -0.07990271 -0.09724775 0.022029925 0.01185265 0.148286 -0.07906447 -0.033240642 0.10584795 -0.06325908 -0.019477168 -0.008640931 -0.07000529 -0.18962482 0.09439709 -0.14003505 0.0069251913 0.057023097 0.14334282 0.18327285 0.030224655 0.0030489042 -0.029372277 0.05036061 -0.05498917 -0.008974637 0.024926428 -0.10606197 -0.055998255 -0.04933936 0.16538762 0.035322297 -0.07346498 -0.059608005 -0.1294189 -0.06142589 -0.26884243 0.040852576 0.11855375 -0.14767595 0.07075131
11 -0.09059948 -0.2299788 -0.024007173 -0.040223733 0.043914538 -0.16011734 0.031612277 0.07063841 0.10378321 -0.004041752 -0.052813873 0.13180038 0.02529005 -0.0792402 0.054997187 -0.25153834 -0.06749288 -0.18915409 0.049892705 -0.018084247 0.26617715 0.006190017 0.12286399 0.091331355 0.00085358415 -0.03563398 0.0054629366 0.0080133155 0.030409122 0.06841223 -0.046122063 -0.020412415 -0.007714022 -0.016683793 -0.08434543 -0.110761404 0.21126816 0.124677494 -0.05346034 -0.14858893 -0.120016135 0.032446172 0.07438548 0.10038841 -0.10764017 0.21483682 0.08595887 0.023443583 0.0544536 0.029746627 -0.12482599 0.12439697 0.01661601 0.148725 -0.17992423 -0.08155983 0.055402532 -0.011022971 -0.13984668 -0.018766033 0.14803378 -0.1419781 -0.016007269 0.13893303 -0.14673555 -0.05180807 -0.16196473 0.042743098 -0.048246663 -0.18708324 -0.108323395 -0.012649879 0.010045336 -0.084283836 0.22761223 -0.015814073 0.11410507 -0.0076860334 -0.05010653 -0.08981688 -0.17331603 -0.09218716 0.021624416 -0.16426302 -0.1747855 0.06326265 0.17856254 -0.092178024 0.007945811 -0.050917596 0.108652584 -0.067854434 0.16812596 -0.04572877 -0.103104584 0.082959145 -0.060325246 -0.17218393 0.08326305 0.014730889 -0.14060093 0.08631692 -0.13362275 0.01790811 -0.021655576 0.11104399 0.18635239 0.049616452 -0.038471743 -0.10274956 0.027187679 -0.0026663346 -0.0019378903 0.056753043 -0.14377274 -0.034598168 -0.034672283 0.16174826 -0.016648773 -0.16073407 -0.048693195 -0.12772682 0.03384547 -0.32571068 -0.063300975 0.030820647 -0.09154962 0.09731973
26 -0.10885359 -0.16145591 -0.036490414 -0.038475282 0.025478007 -0.13494162 0.04945031 -0.01422482 0.01492922 -0.00774344 -0.07272863 0.087249324 0.058153544 -0.06726856 -0.03306385 -0.2232197 -0.041690458 -0.15162851 0.032124814 0.044546828 0.253151 0.024586163 0.13446924 0.11425364 -0.058470566 -0.05803898 -0.034445796 0.0051727425 0.00066515675 0.07206635 -0.03173362 0.0084356 0.011958794 -0.038454656 -0.13720664 -0.07376594 0.23629254 0.12547998 -0.056346014 -0.17352612 -0.1776128 0.082336254 0.018111687 0.04858211 -0.06083888 0.20206513 0.069288306 0.047224477 0.0039064405 -0.0343707 -0.061555468 0.14876558 0.023714995 0.11945762 -0.19352803 -0.074975036 0.066102125 -0.07622674 -0.18305008 0.043971032 0.10767801 -0.09184027 -0.04600092 0.15399933 -0.114546396 -0.11822483 -0.16929607 0.059794612 -0.075902194 -0.12778267 -0.07693891 0.010896427 0.024012584 -0.063508056 0.11954292 -0.045920316 0.05198594 0.02777336 -0.028361231 0.028572464 -0.120231025 -0.13931976 0.04183593 -0.20692044 -0.11039372 0.16457714 0.06364548 -0.06727001 -0.056899443 -0.087736554 0.045056213 -0.0053938357 0.15482454 -0.069045134 -0.042467143 0.09988531 -0.064668864 -0.052756537 0.013495641 -0.05859632 -0.17824674 0.09347092 -0.13614671 0.013153249 0.042551305 0.14393125 0.1909313 0.034525234 -0.0043818364 -0.040131237 0.045044042 -0.047458015 -0.0066369763 0.039515443 -0.11377415 -0.052086927 -0.047943212 0.16357164 0.0325707 -0.100172 -0.059146445 -0.1375035 -0.044610605 -0.2897298 0.024056869 0.1021615 -0.13800699 0.07603371
20 -0.10666884 -0.19424124 -0.030871585 -0.038624573 0.029821 -0.14850017 0.049345434 0.018382283 0.044723682 -0.004993241 -0.06919313 0.10568209 0.049627174 -0.07623535 -0.0029694135 -0.24126479 -0.055652406 -0.16343643 0.039888293 0.018888334 0.25966763 0.016743772 0.13233581 0.10444932 -0.033207648 -0.04391605 -0.008911946 0.007839148 0.017068375 0.06852571 -0.043912232 -0.0022598843 0.0013278762 -0.022787096 -0.11196521 -0.08689892 0.23109798 0.12413167 -0.055558037 -0.16956575 -0.16567898 0.063094966 0.03910101 0.07233093 -0.07685637 0.20524919 0.080751516 0.032611508 0.026745124 -0.015187091 -0.09582473 0.14084314 0.026429273 0.13239552 -0.1943568 -0.079706915 0.058588587 -0.06049839 -0.170512 0.021077385 0.12873986 -0.10748542 -0.04033711 0.14876072 -0.12583964 -0.09854409 -0.167565 0.05606528 -0.06963971 -0.14871918 -0.09257389 0.002083298 0.021265073 -0.07149812 0.1609157 -0.03228379 0.08343129 0.01780673 -0.032591518 -0.011379354 -0.14296357 -0.13281941 0.032404233 -0.2044092 -0.1342082 0.13294171 0.10559631 -0.07851472 -0.038999476 -0.0721683 0.07434866 -0.026210379 0.16239728 -0.06733765 -0.07299827 0.0979248 -0.06604814 -0.099114925 0.03727731 -0.026710732 -0.17408997 0.08613067 -0.14370406 0.014151777 0.017410353 0.13634129 0.1908433 0.043744873 -0.019876642 -0.066308595 0.039417922 -0.030486977 -0.0029338798 0.04796699 -0.13019699 -0.045731716 -0.04060813 0.17349891 0.008969515 -0.11669045 -0.059324734 -0.13331924 -0.01499222 -0.30866006 -0.010113895 0.079961255 -0.12228135 0.08863886
29 -0.105572656 -0.19007033 -0.031449974 -0.041693643 0.034858353 -0.14801992 0.03995286 0.01717443 0.05103019 -0.0018106569 -0.062867545 0.11201481 0.043806966 -0.077452 0.0024171593 -0.24342631 -0.05764366 -0.17084482 0.045436364 0.018294588 0.26286393 0.018117424 0.12749498 0.10380408 -0.037065238 -0.046754926 -0.012993125 0.00786673 0.020028735 0.074269295 -0.038549367 -0.0025450368 0.001277407 -0.02335965 -0.11724095 -0.08952488 0.23115063 0.12827148 -0.051782478 -0.16870397 -0.1557046 0.066266716 0.03932366 0.06907249 -0.07837975 0.2117004 0.07447216 0.034464207 0.023351556 -0.010799191 -0.09335481 0.13783096 0.019680863 0.13821764 -0.19735427 -0.07359833 0.06530191 -0.049790464 -0.1665837 0.019945385 0.12726577 -0.11598956 -0.041767135 0.14729896 -0.13138321 -0.096610636 -0.16998516 0.05307252 -0.06433946 -0.14797193 -0.092963606 0.00055110746 0.019166417 -0.06849035 0.16519675 -0.029908538 0.08577021 0.016513037 -0.03275461 -0.017171139 -0.14550042 -0.12363206 0.033765543 -0.20015086 -0.13688537 0.12609565 0.114003375 -0.083080344 -0.03184784 -0.077442996 0.07336905 -0.03218719 0.16020076 -0.06551217 -0.069225706 0.09995491 -0.06977718 -0.09996111 0.041887477 -0.032397393 -0.1739004 0.09246489 -0.13807194 0.01598878 0.018382631 0.13380384 0.18751295 0.04097091 -0.02041936 -0.0697133 0.042163376 -0.030276934 -0.006391864 0.046186432 -0.13271025 -0.04768891 -0.045397695 0.16378231 0.012037877 -0.122829944 -0.058480162 -0.13772686 -0.016972102 -0.30932745 -0.008453561 0.07729906 -0.12110315 0.08374728
31 -0.101054035 -0.18366891 -0.026691763 -0.035310052 0.02920006 -0.1436158 0.044325005 0.010732585 0.039797544 -0.0025937695 -0.06261569 0.10903392 0.050293073 -0.07728504 -0.0044522313 -0.23668924 -0.05592581 -0.15895908 0.040908337 0.02259868 0.25355828 0.015436108 0.12634647 0.107197024 -0.033435553 -0.045000337 -0.011738797 0.011689609 0.015010833 0.0711074 -0.04216206 0.0037251825 -0.003968377 -0.019875519 -0.11223013 -0.08297998 0.22365321 0.12298899 -0.049534902 -0.16901901 -0.16178687 0.068404 0.040275358 0.068383574 -0.07671309 0.20208217 0.07390446 0.029500015 0.023050677 -0.0117597785 -0.09203463 0.14101297 0.023413626 0.13028651 -0.18836185 -0.079961985 0.058728315 -0.05921054 -0.16840096 0.0171662 0.1250948 -0.10566744 -0.044178266 0.14023533 -0.124028474 -0.09836468 -0.16930424 0.05184989 -0.069327064 -0.1463807 -0.087160006 -0.0007330706 0.023114335 -0.06846924 0.1579006 -0.033275094 0.08314538 0.018161025 -0.028113637 -0.0077451617 -0.13720946 -0.12902759 0.03096012 -0.1993661 -0.1303956 0.12965862 0.09865739 -0.08065117 -0.03723078 -0.07538593 0.063129574 -0.019858174 0.16059467 -0.06612862 -0.07555108 0.09815677 -0.06847274 -0.092304535 0.036682554 -0.027488792 -0.17369485 0.0879263 -0.13670288 0.0076700663 0.016446145 0.1318956 0.18702993 0.045276906 -0.018231887 -0.06416201 0.038551547 -0.036375053 -0.0066692126 0.040935554 -0.12215827 -0.040960383 -0.047056008 0.17179418 0.0041618254 -0.109906666 -0.05955431 -0.13516116 -0.018556358 -0.30147168 -0.009991339 0.08046914 -0.12078377 0.08523212
5 -0.092126414 -0.22636874 -0.029222572 -0.04076142 0.044127677 -0.16029099 0.04196618 0.053244438 0.09046482 -0.0040804986 -0.052353974 0.12840863 0.02971689 -0.08213014 0.041868668 -0.25358123 -0.06612643 -0.18782893 0.046657894 -0.0063450886 0.26867816 0.014397359 0.12228646 0.099975415 -0.0050808103 -0.038448993 0.0041081132 0.0048251 0.029805264 0.07315362 -0.051680937 -0.018497577 -0.012665229 -0.011823628 -0.091045894 -0.11302793 0.21777843 0.12484588 -0.05525109 -0.15825267 -0.12851728 0.036819823 0.06297435 0.09726951 -0.103385374 0.21565631 0.08216472 0.022504436 0.049093038 0.017354798 -0.1196074 0.13120005 0.021010427 0.14506298 -0.18355383 -0.08230007 0.059020758 -0.024329923 -0.14408995 -0.014647049 0.14388812 -0.13615553 -0.023545796 0.14295512 -0.14553064 -0.064839534 -0.16111836 0.04598256 -0.053407446 -0.1818502 -0.1076852 -0.008829134 0.012548589 -0.08526883 0.21730693 -0.024452213 0.10709822 -0.0033990555 -0.047010392 -0.07500915 -0.17522696 -0.106160134 0.023093088 -0.17734343 -0.16884562 0.07895405 0.1639868 -0.08809796 -0.0022619164 -0.057526734 0.10677791 -0.058438614 0.17072155 -0.054565087 -0.10310839 0.09284041 -0.06962958 -0.1600948 0.08030482 0.0054003876 -0.15903428 0.08640003 -0.13805903 0.013339331 -0.01582894 0.11943655 0.19308579 0.05290786 -0.039102092 -0.09646428 0.029353118 -0.014040134 0.0019868596 0.056152932 -0.1460797 -0.033209104 -0.032888114 0.16739655 -0.0062179794 -0.1519283 -0.054182798 -0.13201624 0.02100104 -0.3312375 -0.052383624 0.04928762 -0.09991799 0.10178695
18 -0.092367455 -0.22267313 -0.02500349 -0.046375945 0.044328984 -0.16419931 0.027516702 0.060494035 0.086917505 0.0037603842 -0.05858727 0.12880619 0.039448615 -0.09084495 0.044060968 -0.26051912 -0.06877396 -0.18148257 0.051769607 -0.0056563416 0.2753732 0.014267029 0.13301744 0.09594819 -0.00519362 -0.025497684 0.010524912 0.012534052 0.037275057 0.07664816 -0.051402837 -0.013015792 -0.013913477 -0.00532332 -0.08950585 -0.113968685 0.21159808 0.12206234 -0.048805468 -0.15508556 -0.13193873 0.038333442 0.061582156 0.09801247 -0.10369953 0.21991934 0.070808835 0.022263007 0.05292291 0.017314624 -0.12522446 0.12100085 0.018688388 0.15830056 -0.19043735 -0.07567527 0.058895305 -0.023062248 -0.15366647 -0.012956943 0.14972015 -0.1396045 -0.027597139 0.13891916 -0.1425878 -0.06335201 -0.16364454 0.044105068 -0.051206373 -0.17405184 -0.11036657 -0.010788786 0.022440583 -0.0858811 0.2231425 -0.0187384 0.11924478 0.004236628 -0.036773443 -0.074830644 -0.17987978 -0.10821746 0.023673952 -0.19157368 -0.17082538 0.08401739 0.16771217 -0.09704252 -0.0046309186 -0.05547906 0.108323626 -0.06143936 0.17518884 -0.066460334 -0.11061979 0.09140099 -0.07471634 -0.157165 0.08156652 0.0010547345 -0.16013727 0.0879632 -0.13587493 0.020826107 -0.008942268 0.12579231 0.19016068 0.054113243 -0.038811456 -0.10577283 0.025384596 -0.018650101 -0.0010156055 0.06092566 -0.14820403 -0.03954277 -0.03817542 0.16564797 -0.011123533 -0.15597224 -0.056796845 -0.1442419 0.016591774 -0.33549976 -0.04586714 0.04334496 -0.10242902 0.09334485
22 -0.09127453 -0.22105834 -0.025334882 -0.042434394 0.04021701 -0.16175723 0.033414677 0.052381158 0.08025993 -0.0016277208 -0.058690313 0.12646271 0.03750317 -0.08841273 0.040105373 -0.25372645 -0.067440055 -0.18340927 0.054932587 -0.0023245492 0.27061355 0.013043373 0.12981002 0.097160995 -0.012203095 -0.02973052 0.0044985637 0.0062640547 0.03274647 0.07765552 -0.049020845 -0.01726906 -0.014351107 -0.01145976 -0.095586084 -0.11184828 0.21485583 0.12212894 -0.05469426 -0.16279809 -0.13119753 0.035699226 0.059144508 0.09828607 -0.097647555 0.21960871 0.074415766 0.026194366 0.051081844 0.014654544 -0.122414835 0.12554489 0.013379274 0.14871606 -0.18472514 -0.07845109 0.060690016 -0.021185871 -0.14883833 -0.0125160115 0.14661896 -0.13200235 -0.025477821 0.14391598 -0.1443764 -0.066746034 -0.16811702 0.049080465 -0.052546866 -0.17233439 -0.107651435 -0.006208276 0.01659725 -0.081207156 0.21695924 -0.019870123 0.10719877 0.004613908 -0.03678301 -0.06820952 -0.1747108 -0.11089294 0.027249293 -0.1881577 -0.16501206 0.08427542 0.16128387 -0.096695565 -0.0031901964 -0.060590565 0.10462234 -0.056859124 0.17072421 -0.063142106 -0.101523146 0.09271233 -0.070794694 -0.15287061 0.07812914 -0.0033470695 -0.16106081 0.086963065 -0.1353263 0.021255128 -0.0074548093 0.12763263 0.19087249 0.05653602 -0.03560175 -0.095663935 0.03263688 -0.016766675 0.002877077 0.062146425 -0.14627162 -0.0374911 -0.04100255 0.16737452 -0.01228019 -0.15120885 -0.053993117 -0.13952933 0.016183335 -0.3322311 -0.043498643 0.049947985 -0.099615894 0.09558416
13 -0.08797181 -0.212144 -0.02162389 -0.04402068 0.039667837 -0.15473829 0.034791254 0.05150455 0.08167343 0.001418759 -0.055504467 0.118662186 0.034260906 -0.08549485 0.03887619 -0.24267013 -0.06438688 -0.17946087 0.04774629 -0.00967381 0.26189435 0.0140427295 0.11769098 0.09455252 -0.01298236 -0.031845227 0.0064954762 0.013304766 0.032806046 0.072104216 -0.05030417 -0.013459071 -0.012435028 -0.012852007 -0.091199815 -0.110820554 0.21369617 0.12339865 -0.050667495 -0.15271893 -0.1255402 0.034808476 0.06146946 0.096364625 -0.098368555 0.21109988 0.07712615 0.024530405 0.043206874 0.018590309 -0.11665163 0.12457947 0.017425947 0.14747697 -0.18336186 -0.07875411 0.052862212 -0.023576032 -0.14269617 -0.012399028 0.14158906 -0.12957092 -0.028218865 0.13521731 -0.13696975 -0.066343114 -0.1608681 0.044124383 -0.050549656 -0.17682192 -0.10577732 -0.008454628 0.015276713 -0.08212559 0.21058632 -0.023986738 0.10478406 -0.0013433048 -0.04418548 -0.07083149 -0.16520041 -0.107326314 0.022658233 -0.17498043 -0.16438846 0.08150335 0.1591209 -0.0892131 -0.005260903 -0.05380898 0.104178816 -0.056423396 0.16073313 -0.06023283 -0.09616739 0.08565115 -0.06663611 -0.15555874 0.07145761 -0.0007500384 -0.15044075 0.08324141 -0.13236108 0.018654097 -0.009951477 0.116986066 0.18923388 0.049378328 -0.035558853 -0.097364366 0.034453847 -0.015362532 0.0012858538 0.062235404 -0.14250919 -0.038031675 -0.040046785 0.16410197 -0.007065058 -0.15149617 -0.051867425 -0.1301369 0.02024398 -0.31622455 -0.04676389 0.04738752 -0.09490055 0.09688418
21 -0.106572814 -0.16553466 -0.031097813 -0.039569695 0.024458118 -0.1328686 0.04496335 -0.00044458994 0.030068645 -0.000598825 -0.0674979 0.09686492 0.05043642 -0.072156794 -0.018283565 -0.22363326 -0.047401354 -0.15051772 0.037473597 0.032446958 0.24809527 0.019194892 0.12705243 0.10612323 -0.04403744 -0.050646145 -0.019002108 0.008829017 0.010281447 0.06728404 -0.03323391 0.004013935 0.0034590275 -0.023885034 -0.12241771 -0.07805983 0.22270846 0.12464561 -0.048409402 -0.16158366 -0.17005792 0.07894686 0.029154656 0.056612775 -0.068367206 0.19494285 0.07440363 0.035690926 0.01758551 -0.025367796 -0.07207034 0.14063919 0.027793266 0.1234606 -0.19024502 -0.07287122 0.05815196 -0.068894304 -0.17065251 0.034492653 0.1098512 -0.09514217 -0.045595936 0.14583687 -0.109913774 -0.10759381 -0.16426286 0.05161474 -0.071706824 -0.13771062 -0.07714304 0.00082776276 0.026540654 -0.06258295 0.13521734 -0.036879558 0.06728182 0.021025918 -0.027148996 0.013004442 -0.12728007 -0.13187315 0.033027694 -0.20442422 -0.12125358 0.14166965 0.08009415 -0.07313464 -0.04396916 -0.078977115 0.057765532 -0.010948351 0.14816521 -0.06397917 -0.05984343 0.097206004 -0.06756385 -0.06981131 0.02422542 -0.0423156 -0.17278107 0.08595577 -0.13451359 0.011751986 0.03141 0.13382098 0.18132317 0.034143575 -0.01709411 -0.05570217 0.047444686 -0.034905583 -0.006903298 0.03964811 -0.11749228 -0.04259029 -0.04766233 0.16508175 0.015511065 -0.095551655 -0.058326267 -0.13254122 -0.027844511 -0.28811207 0.008098821 0.08782334 -0.119485445 0.07638995
19 -0.11145982 -0.15288334 -0.033232488 -0.037257124 0.020556858 -0.12314057 0.052759923 -0.027057162 0.0041921227 -0.0057549844 -0.0804677 0.08866266 0.058229893 -0.06295144 -0.049211133 -0.21892814 -0.043358438 -0.14220196 0.03219324 0.05651897 0.24309683 0.021094812 0.13427609 0.11353485 -0.06426357 -0.055841006 -0.035877295 0.008070548 -0.00215869 0.06611295 -0.029172963 0.017439459 0.011996016 -0.037202146 -0.13750596 -0.061189335 0.23342353 0.12730637 -0.05016115 -0.16874719 -0.19188172 0.096408606 0.016415643 0.040788684 -0.047341242 0.19137749 0.07717896 0.039652284 -0.0034269805 -0.045989756 -0.05720922 0.14759783 0.026752813 0.11695948 -0.19364852 -0.07362913 0.056653116 -0.08880843 -0.18007737 0.052461684 0.09742764 -0.08032689 -0.054429278 0.15268229 -0.10192745 -0.13376041 -0.1642677 0.060475938 -0.08156198 -0.1187202 -0.0691376 0.012658975 0.031125931 -0.05579544 0.09281478 -0.04908403 0.05321337 0.039322786 -0.025826352 0.04911625 -0.10542686 -0.14840963 0.041263804 -0.21981707 -0.09992693 0.17996377 0.047923572 -0.06012323 -0.07496689 -0.09033777 0.030886205 0.0124158915 0.149758 -0.07242896 -0.043786738 0.10779408 -0.06508074 -0.030048355 -0.003946055 -0.06762123 -0.1817807 0.09255739 -0.14130059 0.0011730291 0.047564253 0.14100504 0.18182637 0.0295627 -0.005895147 -0.035335597 0.04951498 -0.049335286 -0.008565705 0.026260441 -0.10166993 -0.04949408 -0.04590348 0.17322664 0.02561046 -0.07150697 -0.06291601 -0.13464324 -0.053913124 -0.27281016 0.028885223 0.10976991 -0.14102395 0.07061224
27 -0.10960146 -0.16271348 -0.041557536 -0.037477415 0.022333292 -0.12597056 0.056572996 -0.016643573 0.008588644 -0.006038906 -0.076673955 0.08706549 0.055204175 -0.059624147 -0.041058883 -0.22363666 -0.03904396 -0.14899583 0.029152371 0.045814253 0.25019884 0.022380555 0.1348157 0.11736284 -0.0581789 -0.06400587 -0.03643897 0.007892939 -0.0020589172 0.07011669 -0.031236999 0.008270604 0.010318127 -0.03792512 -0.13472408 -0.06806524 0.23544374 0.12629709 -0.05747483 -0.17786346 -0.19098717 0.093444176 0.018448751 0.046464816 -0.05265684 0.19932474 0.08145256 0.042484745 0.0040277936 -0.039342657 -0.05952893 0.15322052 0.026887223 0.12308747 -0.1973266 -0.07993319 0.060743526 -0.08631297 -0.17629212 0.050129574 0.10142041 -0.07897272 -0.054799236 0.15042208 -0.10696532 -0.12624136 -0.17390886 0.06504945 -0.07948426 -0.12487365 -0.07764311 0.013039312 0.028619027 -0.06327495 0.10466724 -0.047898937 0.056197062 0.030941283 -0.027165659 0.041139767 -0.11653587 -0.14582658 0.042395487 -0.2099506 -0.10870212 0.17170957 0.059505776 -0.06727256 -0.07116881 -0.08679063 0.035082765 -0.00014746297 0.15189552 -0.07100787 -0.04807373 0.10659619 -0.06305497 -0.045353882 0.006449687 -0.0626681 -0.18580267 0.093148254 -0.1375142 0.000988567 0.04484864 0.14159405 0.18804927 0.028806608 -0.008725508 -0.034465086 0.052928746 -0.047484316 -0.009883338 0.028420545 -0.10729596 -0.052863557 -0.047815498 0.17146412 0.025189348 -0.084567495 -0.0627767 -0.12877291 -0.043842163 -0.2815092 0.022612458 0.107673675 -0.13545015 0.07730008
16 -0.11357355 -0.16573891 -0.03602216 -0.03684708 0.024169918 -0.13298862 0.054091115 -0.012261997 0.019704388 -0.005353691 -0.07626898 0.095905825 0.053913873 -0.06402063 -0.030095724 -0.23136523 -0.048763387 -0.15451096 0.028660567 0.040172122 0.25249612 0.023804944 0.13751166 0.1110308 -0.05506708 -0.05666002 -0.028574573 0.0069913273 0.0020254436 0.06484309 -0.03731761 0.012189973 0.008536778 -0.036505 -0.1320094 -0.07011541 0.24369767 0.12556192 -0.056977607 -0.17650947 -0.1879784 0.09194054 0.027409863 0.053049874 -0.058995564 0.1997673 0.07972284 0.044509716 0.0037399547 -0.034223102 -0.06515477 0.15192267 0.029954534 0.12746276 -0.19840586 -0.07768051 0.06136518 -0.08152491 -0.18251708 0.041014973 0.11208161 -0.09543606 -0.053532813 0.1508921 -0.11052043 -0.123332344 -0.17224225 0.064036295 -0.07882183 -0.1348372 -0.0746423 0.0050966935 0.029924376 -0.06684652 0.122737296 -0.04513366 0.063749164 0.027758922 -0.031207742 0.032691725 -0.11562509 -0.14666098 0.039515138 -0.2157083 -0.11363201 0.16939834 0.06717913 -0.06495872 -0.059256956 -0.08453561 0.043106798 -0.0018689152 0.15094477 -0.070313275 -0.049446017 0.10574186 -0.06223823 -0.056796636 0.008017353 -0.058748372 -0.17881763 0.09442192 -0.13763726 0.004943897 0.037668113 0.13804051 0.18810683 0.03285901 -0.007909457 -0.044279065 0.04855705 -0.041618843 -0.011541192 0.03638003 -0.112905115 -0.04892513 -0.04988817 0.17568308 0.024697904 -0.094846696 -0.06207197 -0.13471112 -0.04214192 -0.28846416 0.022829851 0.10207367 -0.13512282 0.08355616
15 -0.11576409 -0.17748085 -0.031279933 -0.0403973 0.02846601 -0.1332297 0.05115437 -0.0072092824 0.025818795 -0.006056704 -0.07106997 0.09980244 0.05341852 -0.06903962 -0.023251086 -0.23558365 -0.050257955 -0.15627939 0.033100117 0.033877634 0.25843805 0.02343515 0.13591334 0.110882014 -0.053688698 -0.054091725 -0.025817761 0.00895298 0.007835655 0.068436965 -0.038005434 0.009529508 0.007924282 -0.028671697 -0.12803435 -0.07585861 0.23596102 0.12900777 -0.050960496 -0.17123213 -0.1843024 0.08325925 0.03097082 0.05979892 -0.06342617 0.20706193 0.07505103 0.03702341 0.011235316 -0.031718224 -0.07666427 0.1483667 0.026607959 0.13194744 -0.20247413 -0.08302117 0.056694776 -0.07773493 -0.17849152 0.040392306 0.11818913 -0.09305104 -0.05046454 0.14818433 -0.11526407 -0.11221783 -0.17110531 0.057599284 -0.071566895 -0.13395719 -0.07901914 0.0048670727 0.0294596 -0.06796076 0.12986629 -0.041123725 0.07029434 0.02878325 -0.03261943 0.016584212 -0.12659034 -0.13891411 0.036896188 -0.21447945 -0.12286552 0.15450278 0.076496236 -0.076927096 -0.05480159 -0.08027502 0.053264935 -0.006878887 0.15965761 -0.07353813 -0.061634716 0.10614934 -0.06594103 -0.062464144 0.020537162 -0.04449142 -0.17905903 0.09131432 -0.1439235 0.009259389 0.034987908 0.13591278 0.19255199 0.03945115 -0.014784975 -0.05643982 0.04776556 -0.043295056 -0.008628688 0.03447049 -0.11928274 -0.046110675 -0.046544503 0.17740077 0.0135101555 -0.095278874 -0.05859452 -0.14023344 -0.02998961 -0.2889135 0.006713229 0.094912164 -0.12882285 0.083959356
10 -0.11122302 -0.1668486 -0.03776266 -0.03676723 0.025850479 -0.1288298 0.053521376 -0.012640456 0.021494232 -0.007615751 -0.072175704 0.09691237 0.052631553 -0.065434486 -0.034334674 -0.22623491 -0.044967744 -0.1481417 0.032016788 0.044312324 0.2538248 0.02042533 0.13509783 0.117502354 -0.055196144 -0.05709597 -0.025911335 0.0045239893 0.0027241881 0.068254255 -0.037262302 0.00710824 0.008872531 -0.028751107 -0.13518268 -0.07276449 0.24008164 0.12454763 -0.0569562 -0.17737779 -0.1876613 0.08732578 0.027470568 0.05574555 -0.05686897 0.20559868 0.08137662 0.0394759 0.011582091 -0.03801908 -0.06929875 0.15040125 0.030854594 0.12385093 -0.19949901 -0.075798094 0.06258071 -0.08516812 -0.18471706 0.044365376 0.11048729 -0.09037813 -0.05580142 0.15261807 -0.111496836 -0.12145001 -0.17283635 0.05795834 -0.08029791 -0.13319519 -0.07505879 0.0045955977 0.031909898 -0.062436044 0.12421444 -0.041759327 0.06292624 0.029143814 -0.028929675 0.02958463 -0.12498223 -0.14582188 0.039796196 -0.21400294 -0.117469884 0.16587335 0.06464842 -0.07274572 -0.06280433 -0.087479815 0.04832173 -0.0021058198 0.15807778 -0.06845334 -0.053829793 0.10706358 -0.06727694 -0.057190347 0.0127195865 -0.051399283 -0.1852221 0.091527015 -0.14175932 0.0067557865 0.036952063 0.13937585 0.19029678 0.037589643 -0.012078369 -0.04417178 0.05197317 -0.048762638 -0.0070945346 0.032084078 -0.11288289 -0.050188612 -0.047868777 0.17633946 0.021489168 -0.093460515 -0.06250169 -0.13773495 -0.040871598 -0.28796297 0.021911595 0.09970577 -0.1370977 0.07936016
17 -0.083089866 -0.24934055 -0.02377236 -0.037863053 0.042448923 -0.16886881 0.03869758 0.08848773 0.12685259 0.0029704345 -0.047811564 0.14681876 0.02162945 -0.083920315 0.070170745 -0.25520572 -0.07220906 -0.20793073 0.05036465 -0.025893856 0.27352878 -0.0015763419 0.12364028 0.08699243 0.02048921 -0.030267823 0.013759204 0.00472034 0.040546946 0.0785869 -0.05083983 -0.027268013 -0.012814412 -0.011004244 -0.079782 -0.13047563 0.21354523 0.12744784 -0.05866442 -0.15047815 -0.11533128 0.016408509 0.08221954 0.11892154 -0.12175707 0.22099602 0.093035355 0.018573374 0.06847149 0.046980176 -0.14506792 0.12110004 0.016998857 0.15363814 -0.17773351 -0.085919015 0.048590668 0.0025371686 -0.12328028 -0.03997638 0.16165453 -0.15374255 -0.010252315 0.13483724 -0.15305357 -0.038095634 -0.16091855 0.04034445 -0.04346183 -0.20149483 -0.123022676 -0.017325867 0.0059207627 -0.09133947 0.25794968 -0.0071122376 0.123603836 -0.0150705855 -0.05348424 -0.1218137 -0.19144243 -0.08615225 0.024192512 -0.15113641 -0.19366805 0.04299645 0.2080275 -0.100994684 0.02258288 -0.044638824 0.12521823 -0.081304416 0.17399472 -0.040099025 -0.12284675 0.085913084 -0.058578927 -0.20138076 0.10521248 0.030071525 -0.13768256 0.08353748 -0.13976243 0.019139953 -0.03743493 0.104419716 0.18956345 0.054068934 -0.049338 -0.111492194 0.025639366 0.005685707 0.006796145 0.06576795 -0.15375999 -0.02947438 -0.030476121 0.1664061 -0.0255893 -0.17908797 -0.04511866 -0.12104479 0.05364564 -0.33633116 -0.08902785 0.018767238 -0.079033785 0.109076284
23 -0.11414182 -0.17302172 -0.03945719 -0.03643385 0.026236238 -0.13651094 0.052135207 -0.0052969567 0.023413965 -0.007024949 -0.0776698 0.09923484 0.05680996 -0.073958024 -0.032695495 -0.23527798 -0.048176356 -0.1545644 0.037986852 0.045878094 0.25865 0.020339753 0.13477886 0.11679474 -0.05230076 -0.05723949 -0.029801344 0.00452829 0.0019398509 0.07442736 -0.036471017 0.009416698 0.006016534 -0.031703275 -0.13610353 -0.07729921 0.24479637 0.12880084 -0.058346182 -0.17659517 -0.18699239 0.08797133 0.029217217 0.058456525 -0.06195885 0.20347297 0.0781609 0.043414317 0.008062268 -0.03434458 -0.072184324 0.15045853 0.030519241 0.12693201 -0.20213847 -0.083826184 0.060250424 -0.07960815 -0.18325415 0.0363783 0.114076845 -0.09608112 -0.048555534 0.15616319 -0.114365965 -0.12273498 -0.17364492 0.06438877 -0.07623134 -0.1338095 -0.08176305 0.008942478 0.030867921 -0.06445941 0.12473754 -0.04262754 0.06762592 0.031293496 -0.024965484 0.027404578 -0.12295646 -0.14828335 0.042849943 -0.21875593 -0.119870014 0.1675687 0.0726409 -0.070496306 -0.06205012 -0.08749163 0.05056091 -0.0047460683 0.15579702 -0.07348645 -0.060536087 0.10468134 -0.0671208 -0.06271935 0.0132790245 -0.049413085 -0.18697636 0.093633324 -0.14127094 0.003524289 0.035179358 0.14079899 0.1901821 0.03465774 -0.010371783 -0.048043575 0.04567989 -0.046700627 -0.0089467 0.034708902 -0.120223366 -0.051516615 -0.05108918 0.17888945 0.022241129 -0.09556764 -0.061334025 -0.13700944 -0.040529296 -0.29989156 0.016726863 0.09759426 -0.13583165 0.08227291
12 -0.10553971 -0.20611168 -0.026676381 -0.04427322 0.035386622 -0.1548241 0.03530396 0.030768972 0.06055655 0.0004004156 -0.058487393 0.11977065 0.042184256 -0.07939476 0.01644992 -0.24613242 -0.06182725 -0.17249577 0.04850051 0.0051229727 0.26763988 0.021368237 0.13354708 0.099281326 -0.029312804 -0.041546546 -0.003947308 0.012149949 0.023779465 0.07245341 -0.04301229 -0.0044964366 -0.009111266 -0.017737169 -0.105774745 -0.09538424 0.22484908 0.12847723 -0.052832775 -0.16172445 -0.15141582 0.054260943 0.05331082 0.081839785 -0.089999594 0.21615207 0.078279644 0.02910375 0.030633252 -0.002419359 -0.10463854 0.13736854 0.018998697 0.14162332 -0.19702266 -0.08115012 0.061358605 -0.041075256 -0.16419156 0.0104159685 0.13751163 -0.12064578 -0.039309654 0.14829218 -0.1375361 -0.08424361 -0.16544853 0.05099106 -0.059778456 -0.15815526 -0.09256259 -0.0003823647 0.022371005 -0.0750537 0.18646899 -0.029688686 0.0977508 0.014488072 -0.036742743 -0.0316176 -0.15475073 -0.12019671 0.024456883 -0.19609246 -0.15158346 0.115134835 0.12919523 -0.08648638 -0.024628162 -0.07150763 0.08405409 -0.03747108 0.16529246 -0.06593412 -0.08143654 0.09309368 -0.06607877 -0.12641579 0.056177683 -0.019431455 -0.17213774 0.085645325 -0.13695166 0.018401349 0.008391285 0.12848976 0.19372173 0.04794434 -0.024095714 -0.08523542 0.03424913 -0.026356554 -0.0019765492 0.05558567 -0.13475974 -0.039671905 -0.04411757 0.17144552 -0.0026606775 -0.1373383 -0.05954154 -0.14172721 -0.0017888902 -0.31578627 -0.0252632 0.06692777 -0.117412865 0.090962164
